<?xml version="1.0"?>
<opencv_storage>
<opencv_ml_svm>
  <format>3</format>
  <svmType>C_SVC</svmType>
  <kernel>
    <type>LINEAR</type></kernel>
  <C>1.</C>
  <term_criteria><epsilon>1.1920928955078125e-007</epsilon>
    <iterations>1000</iterations></term_criteria>
  <var_count>324</var_count>
  <class_count>2</class_count>
  <class_labels type_id="opencv-matrix">
    <rows>2</rows>
    <cols>1</cols>
    <dt>i</dt>
    <data>
      -1 1</data></class_labels>
  <sv_total>1</sv_total>
  <support_vectors>
    <_>
      -1.04216766e+000 -1.96966445e+000 -1.33870208e+000 3.09344053e-001
      -5.08710086e-001 7.66996443e-002 1.10913649e-001 3.40055019e-001
      -5.15287519e-001 2.58429348e-001 -1.54414237e+000 -5.94510913e-001
      -4.14670140e-001 1.44873625e-002 -8.28602672e-001 -3.21615785e-001
      -2.33567670e-001 8.67534950e-002 -1.62248626e-001 -5.10283709e-001
      -6.75795555e-001 -1.11014879e+000 -1.28795230e+000
      -7.72068858e-001 -2.11009353e-001 -8.03614631e-002
      -3.78288776e-001 -8.13730657e-001 -4.84308034e-001
      -3.53980333e-001 -2.44692937e-001 -9.98789728e-001
      -6.70703351e-001 -3.77179742e-001 3.32587659e-001 -4.80826408e-001
      -4.23841208e-001 -5.70648074e-001 1.34040475e-001 -8.19549799e-001
      -8.71515512e-001 -4.56323206e-001 -1.41609818e-001
      -4.39901143e-001 2.59410232e-001 -9.02740061e-001 -6.51586771e-001
      1.27953887e-001 6.85490370e-001 -3.96439403e-001 -9.63099837e-001
      -6.38138890e-001 1.50682211e-001 1.04064057e-002 -7.34585285e-001
      1.24834865e-001 -4.61187571e-001 -3.09525728e-001 -1.39182091e+000
      -1.36513209e+000 -1.74315810e-001 -3.89065474e-001
      -6.44745708e-001 -1.97862878e-001 9.50296074e-002 -6.47912979e-001
      1.07127175e-001 -1.12688839e+000 -4.89149034e-001 -4.29187804e-001
      -5.45228720e-001 -4.37147349e-001 -7.06224203e-001 3.36092114e-001
      1.60334110e-001 -3.73223305e-001 -1.16879964e+000 -9.97549474e-001
      -9.13462520e-001 -2.92349786e-001 -2.28887618e-001
      -1.61438990e+000 -4.00862783e-001 -1.05203539e-001 1.00211418e+000
      -3.27615649e-001 -1.69379735e+000 -8.44155252e-001
      -5.56745112e-001 5.06805956e-001 -1.58797204e+000 1.58772975e-001
      -5.72828725e-002 -1.17765749e+000 -6.17195964e-001 5.96936405e-001
      -8.76597524e-001 -2.85229415e-001 3.85652006e-001 -1.04172349e+000
      -1.88235804e-001 2.52044648e-001 1.84494615e-001 -8.24578464e-001
      -8.06535780e-001 6.29017875e-002 4.67545569e-001 8.03419352e-001
      2.19898030e-001 -3.66580725e-001 2.67804235e-001 4.98680510e-002
      -1.21076906e+000 3.13539198e-003 8.83444324e-002 -1.29445389e-001
      -3.76301765e-001 -8.29630941e-002 6.38285816e-001 -3.22964877e-001
      4.43237543e-001 -1.34258437e+000 7.94777513e-001 2.70950049e-001
      -2.73689240e-001 -1.70689300e-002 3.64981800e-001 -1.82140574e-001
      2.91365772e-001 4.48297292e-001 -1.26364219e+000 -8.50388229e-001
      3.40600908e-001 -2.33842079e-002 5.92246540e-002 -5.70046127e-001
      2.27028847e-001 -3.38312149e-001 8.17595795e-002 -7.98431814e-001
      -1.02159537e-001 -3.30267325e-002 -2.54140466e-001 6.01005256e-002
      -2.78699309e-001 -5.88366210e-001 -5.90214193e-001
      -2.38329202e-001 -1.58318257e+000 6.38227105e-001 -2.64583319e-001
      -5.20872235e-001 -1.81057602e-001 -4.35388744e-001
      -2.12168992e-001 -3.56244355e-001 -3.29752266e-001
      -1.43312824e+000 -3.05152386e-001 1.04920333e-003 -4.59967256e-001
      -5.20559132e-001 -2.35337630e-001 -4.74389613e-001
      -3.79646979e-002 -4.16722208e-001 -7.83121407e-001
      -1.26309848e+000 -5.81485510e-001 -3.01275522e-001
      -3.37569974e-002 -9.84518886e-001 -7.70222127e-001
      -1.91218585e-001 -1.13272631e+000 -4.85583872e-001
      -2.06946045e-001 3.71416807e-001 -5.80082357e-001 2.88444627e-002
      -5.40334940e-001 1.55476242e-001 1.11640198e-002 4.74307895e-001
      -1.19700956e+000 -1.65303484e-001 -4.01141763e-001
      -1.14134163e-001 4.84361947e-001 2.23770052e-001 1.06789017e+000
      1.72369406e-001 8.79826784e-001 -1.28844666e+000 -6.32679582e-001
      3.43010694e-001 1.00846255e+000 4.63311404e-001 -3.15342814e-001
      -8.58649373e-001 -4.00497377e-001 6.89924657e-001 -3.25972974e-001
      -2.99610645e-001 -1.95970237e-001 2.25906119e-001 -1.91320941e-001
      8.14485967e-001 6.07050717e-001 5.41241504e-002 1.04334258e-001
      -6.78695321e-001 1.37842858e+000 8.32568228e-001 8.99700880e-001
      9.72456187e-002 -7.73197830e-001 -2.56685447e-002 -2.07884103e-001
      -3.13213319e-001 -1.17361784e+000 -3.22528541e-001
      -6.65178895e-001 -1.20886719e+000 -5.87741792e-001
      -4.24978405e-001 -6.01971626e-001 -3.32453460e-001
      -6.81242883e-001 -2.46429279e-001 -2.70018220e-001
      -6.17344342e-002 -6.76628888e-001 -5.26068747e-001
      -5.05838275e-001 1.05329549e+000 -3.41055572e-001 -3.22211176e-001
      -5.65461278e-001 -9.70292836e-002 -1.04146731e+000
      -1.16694331e+000 -3.97551388e-001 -2.38608897e-001 2.38320366e-001
      -4.22050714e-001 -1.11798406e+000 2.09529966e-001 -1.31051147e+000
      -7.10803568e-001 -6.53266788e-001 -1.17520332e+000
      -1.76489830e-001 -5.08866198e-002 -2.32155159e-001
      -8.47656131e-001 -1.66625607e+000 -4.32076365e-001 4.25668687e-001
      -1.00738041e-001 -8.69147122e-001 -1.27190679e-001
      -1.20045915e-001 1.34886280e-001 -1.00253093e+000 -1.80186450e-001
      -1.69439644e-001 -1.48010731e-001 -3.49653959e-002
      -6.11779504e-002 1.26179174e-001 -3.40159982e-001 -1.09476817e+000
      -2.83341259e-002 -8.53921056e-001 -4.77921188e-001
      -1.05841005e+000 -1.41271338e-001 -2.62267113e-001
      -5.48215449e-001 -8.29159319e-001 -7.17576623e-001
      -5.85203588e-001 -2.15656951e-001 1.04739659e-001 -4.41866577e-001
      -6.33969069e-001 -9.63488877e-001 -6.53836131e-001
      -4.80863184e-001 3.51543754e-001 2.35573754e-001 -3.42035562e-001
      -4.61518466e-001 -2.47624770e-001 3.80160734e-002 -1.41497031e-001
      5.17846227e-001 3.92227948e-001 -4.25258487e-001 -9.87725258e-001
      -1.00025129e+000 -4.05608594e-001 -1.63550273e-001
      -1.45846158e-001 -1.19879842e+000 -1.76745474e-001
      -5.25530756e-001 -1.10726035e+000 -4.63910073e-001
      -1.03176320e+000 -1.44681558e-001 4.44203377e-001 1.92597080e-002
      -1.18697333e+000 -2.57417738e-001 -6.43160760e-001
      -5.95857263e-001 -1.45753169e+000 -5.03725529e-001 1.20813632e+000
      6.58480823e-002 -3.46776694e-002 -8.23566437e-001</_></support_vectors>
  <decision_functions>
    <_>
      <sv_count>1</sv_count>
      <rho>-1.9558495453962667e+001</rho>
      <alpha>
        1.</alpha></_></decision_functions></opencv_ml_svm>
</opencv_storage>
